<ranker>
	<info>
		<type>DART</type>
		<trees>104</trees>
		<leaves>10</leaves>
		<shrinkage>0.10000000000000001</shrinkage>
		<leafsupport>1</leafsupport>
		<discretization>0</discretization>
		<estop>100</estop>
		<sample_type>UNIFORM</sample_type>
		<normalize_type>TREE</normalize_type>
		<adaptive_type>PLUSHALF_RESET_LB1_UBRD</adaptive_type>
		<rate_drop>0.014999999999999999</rate_drop>
		<skip_drop>0</skip_drop>
		<best_on_train>false</best_on_train>
		<random_keep>0</random_keep>
		<drop_on_best>false</drop_on_best>
	</info>
	<ensemble>
		<tree id="1" weight="0.082644628099173556">
			<split>
				<feature>14</feature>
				<threshold>0</threshold>
				<split pos="left">
					<feature>34</feature>
					<threshold>0</threshold>
					<split pos="left">
						<feature>16</feature>
						<threshold>1</threshold>
						<split pos="left">
							<output>-1.1191936135834029</output>
						</split>
						<split pos="right">
							<feature>61</feature>
							<threshold>0</threshold>
							<split pos="left">
								<feature>1</feature>
								<threshold>4</threshold>
								<split pos="left">
									<output>1.9603299656199313</output>
								</split>
								<split pos="right">
									<feature>1</feature>
									<threshold>5</threshold>
									<split pos="left">
										<feature>22</feature>
										<threshold>215608</threshold>
										<split pos="left">
											<output>2</output>
										</split>
										<split pos="right">
											<output>-2</output>
										</split>
									</split>
									<split pos="right">
										<output>1.5265196290891743</output>
									</split>
								</split>
							</split>
							<split pos="right">
								<output>1.8223392527224151</output>
							</split>
						</split>
					</split>
					<split pos="right">
						<output>0.61647456641695375</output>
					</split>
				</split>
				<split pos="right">
					<feature>30</feature>
					<threshold>1</threshold>
					<split pos="left">
						<output>1.4039108958366489</output>
					</split>
					<split pos="right">
						<feature>45</feature>
						<threshold>0</threshold>
						<split pos="left">
							<output>1.8228997610594369</output>
						</split>
						<split pos="right">
							<output>-1.9698148495830778</output>
						</split>
					</split>
				</split>
			</split>
		</tree>
		<tree id="2" weight="0">
			<split>
				<feature>8</feature>
				<threshold>9</threshold>
				<split pos="left">
					<feature>42</feature>
					<threshold>16898904</threshold>
					<split pos="left">
						<feature>27</feature>
						<threshold>2.98214293</threshold>
						<split pos="left">
							<output>-1.0315660736155436</output>
						</split>
						<split pos="right">
							<feature>16</feature>
							<threshold>1</threshold>
							<split pos="left">
								<feature>46</feature>
								<threshold>0</threshold>
								<split pos="left">
									<output>0.63506325289362509</output>
								</split>
								<split pos="right">
									<output>1.3030473005471854</output>
								</split>
							</split>
							<split pos="right">
								<feature>34</feature>
								<threshold>0</threshold>
								<split pos="left">
									<feature>22</feature>
									<threshold>215608</threshold>
									<split pos="left">
										<output>-1.4204508923215819</output>
									</split>
									<split pos="right">
										<feature>1</feature>
										<threshold>4</threshold>
										<split pos="left">
											<output>-0.0086238575785233442</output>
										</split>
										<split pos="right">
											<output>1.9377616144840406</output>
										</split>
									</split>
								</split>
								<split pos="right">
									<output>-1.0949015055611437</output>
								</split>
							</split>
						</split>
					</split>
					<split pos="right">
						<output>-2.0865620349385665</output>
					</split>
				</split>
				<split pos="right">
					<feature>1</feature>
					<threshold>5</threshold>
					<split pos="left">
						<output>-1.9609556937462285</output>
					</split>
					<split pos="right">
						<output>1.8659305881553818</output>
					</split>
				</split>
			</split>
		</tree>
		<tree id="3" weight="0">
			<split>
				<feature>27</feature>
				<threshold>2.98214293</threshold>
				<split pos="left">
					<output>-1.0929595210042888</output>
				</split>
				<split pos="right">
					<feature>46</feature>
					<threshold>0</threshold>
					<split pos="left">
						<feature>16</feature>
						<threshold>1</threshold>
						<split pos="left">
							<output>0.22564876703249667</output>
						</split>
						<split pos="right">
							<feature>34</feature>
							<threshold>0</threshold>
							<split pos="left">
								<feature>22</feature>
								<threshold>215608</threshold>
								<split pos="left">
									<output>-1.4204508923215813</output>
								</split>
								<split pos="right">
									<feature>1</feature>
									<threshold>4</threshold>
									<split pos="left">
										<output>-0.0086238575785235871</output>
									</split>
									<split pos="right">
										<output>1.9377616144840406</output>
									</split>
								</split>
							</split>
							<split pos="right">
								<output>-1.1808694836017721</output>
							</split>
						</split>
					</split>
					<split pos="right">
						<feature>1</feature>
						<threshold>6</threshold>
						<split pos="left">
							<feature>30</feature>
							<threshold>0</threshold>
							<split pos="left">
								<output>0.78515260378258522</output>
							</split>
							<split pos="right">
								<feature>3</feature>
								<threshold>4</threshold>
								<split pos="left">
									<output>-1.7770034791593095</output>
								</split>
								<split pos="right">
									<output>1.5909745800778623</output>
								</split>
							</split>
						</split>
						<split pos="right">
							<output>1.731352540042391</output>
						</split>
					</split>
				</split>
			</split>
		</tree>
		<tree id="4" weight="0.10000000000000001">
			<split>
				<feature>45</feature>
				<threshold>-1</threshold>
				<split pos="left">
					<feature>1</feature>
					<threshold>6</threshold>
					<split pos="left">
						<output>-0.38947487414171622</output>
					</split>
					<split pos="right">
						<feature>27</feature>
						<threshold>2</threshold>
						<split pos="left">
							<output>0</output>
						</split>
						<split pos="right">
							<output>-2.1289509913842122</output>
						</split>
					</split>
				</split>
				<split pos="right">
					<feature>27</feature>
					<threshold>2.98214293</threshold>
					<split pos="left">
						<output>-0.77076156561421894</output>
					</split>
					<split pos="right">
						<feature>46</feature>
						<threshold>0</threshold>
						<split pos="left">
							<feature>1</feature>
							<threshold>4</threshold>
							<split pos="left">
								<output>0.10181656169159448</output>
							</split>
							<split pos="right">
								<feature>16</feature>
								<threshold>1</threshold>
								<split pos="left">
									<output>1.5359230216279607</output>
								</split>
								<split pos="right">
									<feature>34</feature>
									<threshold>0</threshold>
									<split pos="left">
										<feature>22</feature>
										<threshold>215608</threshold>
										<split pos="left">
											<output>-1.7142584939124474</output>
										</split>
										<split pos="right">
											<output>1.5442922056318094</output>
										</split>
									</split>
									<split pos="right">
										<output>2.7340043190339416</output>
									</split>
								</split>
							</split>
						</split>
						<split pos="right">
							<output>1.1704345031867387</output>
						</split>
					</split>
				</split>
			</split>
		</tree>
		<tree id="5" weight="0.082644628099173556">
			<split>
				<feature>18</feature>
				<threshold>395</threshold>
				<split pos="left">
					<feature>47</feature>
					<threshold>-6.22222185</threshold>
					<split pos="left">
						<output>1.5443171813857905</output>
					</split>
					<split pos="right">
						<feature>8</feature>
						<threshold>9</threshold>
						<split pos="left">
							<feature>22</feature>
							<threshold>8979</threshold>
							<split pos="left">
								<output>-1.1881937484232101</output>
							</split>
							<split pos="right">
								<feature>27</feature>
								<threshold>2.98214293</threshold>
								<split pos="left">
									<output>-0.55841658137098926</output>
								</split>
								<split pos="right">
									<feature>22</feature>
									<threshold>10992</threshold>
									<split pos="left">
										<output>1.344133144934422</output>
									</split>
									<split pos="right">
										<feature>16</feature>
										<threshold>1</threshold>
										<split pos="left">
											<output>0.31488598620739894</output>
										</split>
										<split pos="right">
											<feature>34</feature>
											<threshold>0</threshold>
											<split pos="left">
												<feature>1</feature>
												<threshold>4</threshold>
												<split pos="left">
													<output>-1.7237794791857532</output>
												</split>
												<split pos="right">
													<output>1.4643092835636013</output>
												</split>
											</split>
											<split pos="right">
												<output>-0.36602198200024816</output>
											</split>
										</split>
									</split>
								</split>
							</split>
						</split>
						<split pos="right">
							<output>1.5611457150596169</output>
						</split>
					</split>
				</split>
				<split pos="right">
					<output>1.7143658506035711</output>
				</split>
			</split>
		</tree>
		<tree id="6" weight="0">
			<split>
				<feature>18</feature>
				<threshold>395</threshold>
				<split pos="left">
					<feature>47</feature>
					<threshold>-6.22222185</threshold>
					<split pos="left">
						<output>1.5132156699920389</output>
					</split>
					<split pos="right">
						<feature>8</feature>
						<threshold>9</threshold>
						<split pos="left">
							<feature>22</feature>
							<threshold>8581</threshold>
							<split pos="left">
								<output>-1.1481180091517051</output>
							</split>
							<split pos="right">
								<feature>42</feature>
								<threshold>-17441948</threshold>
								<split pos="left">
									<output>-2.038664272739108</output>
								</split>
								<split pos="right">
									<feature>27</feature>
									<threshold>2.98214293</threshold>
									<split pos="left">
										<output>-0.38279438526955839</output>
									</split>
									<split pos="right">
										<feature>22</feature>
										<threshold>11380</threshold>
										<split pos="left">
											<output>1.0798857629660392</output>
										</split>
										<split pos="right">
											<feature>17</feature>
											<threshold>0</threshold>
											<split pos="left">
												<feature>54</feature>
												<threshold>0</threshold>
												<split pos="left">
													<output>0.41966536379279212</output>
												</split>
												<split pos="right">
													<output>1.3449443533398953</output>
												</split>
											</split>
											<split pos="right">
												<output>-0.18357809560939625</output>
											</split>
										</split>
									</split>
								</split>
							</split>
						</split>
						<split pos="right">
							<output>1.4102785326436547</output>
						</split>
					</split>
				</split>
				<split pos="right">
					<output>1.5516750754627124</output>
				</split>
			</split>
		</tree>
		<tree id="7" weight="0.090909090909090912">
			<split>
				<feature>18</feature>
				<threshold>395</threshold>
				<split pos="left">
					<feature>47</feature>
					<threshold>-6.22222185</threshold>
					<split pos="left">
						<output>1.4091862604229426</output>
					</split>
					<split pos="right">
						<feature>8</feature>
						<threshold>9</threshold>
						<split pos="left">
							<feature>41</feature>
							<threshold>1</threshold>
							<split pos="left">
								<feature>22</feature>
								<threshold>8581</threshold>
								<split pos="left">
									<output>-0.88152714433370694</output>
								</split>
								<split pos="right">
									<feature>27</feature>
									<threshold>2.98214293</threshold>
									<split pos="left">
										<output>-0.22425221682095772</output>
									</split>
									<split pos="right">
										<feature>22</feature>
										<threshold>11038</threshold>
										<split pos="left">
											<output>1.0205127325080761</output>
										</split>
										<split pos="right">
											<feature>42</feature>
											<threshold>0</threshold>
											<split pos="left">
												<feature>54</feature>
												<threshold>0</threshold>
												<split pos="left">
													<output>0.33127813137527978</output>
												</split>
												<split pos="right">
													<output>1.2437744232752677</output>
												</split>
											</split>
											<split pos="right">
												<output>-0.28250596471444173</output>
											</split>
										</split>
									</split>
								</split>
							</split>
							<split pos="right">
								<output>-2.3391721855579028</output>
							</split>
						</split>
						<split pos="right">
							<output>1.3270379643140611</output>
						</split>
					</split>
				</split>
				<split pos="right">
					<output>1.4188755941712352</output>
				</split>
			</split>
		</tree>
		<tree id="8" weight="0.10000000000000001">
			<split>
				<feature>18</feature>
				<threshold>395</threshold>
				<split pos="left">
					<feature>47</feature>
					<threshold>-6.22222185</threshold>
					<split pos="left">
						<output>1.3318194790017182</output>
					</split>
					<split pos="right">
						<feature>8</feature>
						<threshold>9</threshold>
						<split pos="left">
							<feature>22</feature>
							<threshold>8581</threshold>
							<split pos="left">
								<output>-0.86135834202049577</output>
							</split>
							<split pos="right">
								<feature>22</feature>
								<threshold>10992</threshold>
								<split pos="left">
									<output>0.76042637195613749</output>
								</split>
								<split pos="right">
									<feature>27</feature>
									<threshold>3.9000001</threshold>
									<split pos="left">
										<output>-0.18058568364004052</output>
									</split>
									<split pos="right">
										<feature>28</feature>
										<threshold>5</threshold>
										<split pos="left">
											<feature>16</feature>
											<threshold>1</threshold>
											<split pos="left">
												<output>0.60322709894220072</output>
											</split>
											<split pos="right">
												<feature>53</feature>
												<threshold>0</threshold>
												<split pos="left">
													<output>1.2227759238356781</output>
												</split>
												<split pos="right">
													<output>-1.3261504717846131</output>
												</split>
											</split>
										</split>
										<split pos="right">
											<output>-0.94616402264518018</output>
										</split>
									</split>
								</split>
							</split>
						</split>
						<split pos="right">
							<output>0.58264722361320698</output>
						</split>
					</split>
				</split>
				<split pos="right">
					<output>1.3284212413361287</output>
				</split>
			</split>
		</tree>
		<tree id="9" weight="0.10000000000000001">
			<split>
				<feature>18</feature>
				<threshold>395</threshold>
				<split pos="left">
					<feature>47</feature>
					<threshold>-6.22222185</threshold>
					<split pos="left">
						<output>1.2714647365908778</output>
					</split>
					<split pos="right">
						<feature>8</feature>
						<threshold>9</threshold>
						<split pos="left">
							<feature>22</feature>
							<threshold>8979</threshold>
							<split pos="left">
								<output>-0.76838024127564541</output>
							</split>
							<split pos="right">
								<feature>22</feature>
								<threshold>10992</threshold>
								<split pos="left">
									<output>0.64496901383886707</output>
								</split>
								<split pos="right">
									<feature>8</feature>
									<threshold>2</threshold>
									<split pos="left">
										<feature>42</feature>
										<threshold>-17441948</threshold>
										<split pos="left">
											<output>-1.7264293175527019</output>
										</split>
										<split pos="right">
											<feature>27</feature>
											<threshold>4.88888884</threshold>
											<split pos="left">
												<output>-0.22559311615045943</output>
											</split>
											<split pos="right">
												<feature>1</feature>
												<threshold>4</threshold>
												<split pos="left">
													<output>-0.3287912729066903</output>
												</split>
												<split pos="right">
													<output>0.80293163989465199</output>
												</split>
											</split>
										</split>
									</split>
									<split pos="right">
										<output>0.66534455837483508</output>
									</split>
								</split>
							</split>
						</split>
						<split pos="right">
							<output>0.50676676399672971</output>
						</split>
					</split>
				</split>
				<split pos="right">
					<output>1.2516744688956396</output>
				</split>
			</split>
		</tree>
		<tree id="10" weight="0.10000000000000001">
			<split>
				<feature>18</feature>
				<threshold>395</threshold>
				<split pos="left">
					<feature>47</feature>
					<threshold>-6.22222185</threshold>
					<split pos="left">
						<output>1.2203671341159841</output>
					</split>
					<split pos="right">
						<feature>8</feature>
						<threshold>9</threshold>
						<split pos="left">
							<feature>8</feature>
							<threshold>4</threshold>
							<split pos="left">
								<feature>22</feature>
								<threshold>10123</threshold>
								<split pos="left">
									<output>-0.63169493165035151</output>
								</split>
								<split pos="right">
									<feature>22</feature>
									<threshold>10992</threshold>
									<split pos="left">
										<output>0.8663592157476222</output>
									</split>
									<split pos="right">
										<feature>22</feature>
										<threshold>20937</threshold>
										<split pos="left">
											<output>-1.2388295287087971</output>
										</split>
										<split pos="right">
											<feature>22</feature>
											<threshold>21932</threshold>
											<split pos="left">
												<output>1.2130704955416962</output>
											</split>
											<split pos="right">
												<feature>27</feature>
												<threshold>3.83333302</threshold>
												<split pos="left">
													<output>-0.081010289505106192</output>
												</split>
												<split pos="right">
													<output>0.56218743883682032</output>
												</split>
											</split>
										</split>
									</split>
								</split>
							</split>
							<split pos="right">
								<output>-1.1698967958249331</output>
							</split>
						</split>
						<split pos="right">
							<output>0.45157969347602928</output>
						</split>
					</split>
				</split>
				<split pos="right">
					<output>1.1949936952097573</output>
				</split>
			</split>
		</tree>
		<tree id="11" weight="0.090909090909090912">
			<split>
				<feature>18</feature>
				<threshold>395</threshold>
				<split pos="left">
					<feature>47</feature>
					<threshold>-6.22222185</threshold>
					<split pos="left">
						<output>1.1796573586176393</output>
					</split>
					<split pos="right">
						<feature>8</feature>
						<threshold>9</threshold>
						<split pos="left">
							<feature>22</feature>
							<threshold>8581</threshold>
							<split pos="left">
								<output>-0.62369452645705914</output>
							</split>
							<split pos="right">
								<feature>8</feature>
								<threshold>3</threshold>
								<split pos="left">
									<feature>27</feature>
									<threshold>6.33333302</threshold>
									<split pos="left">
										<feature>27</feature>
										<threshold>2.75</threshold>
										<split pos="left">
											<output>-0.05241063841838222</output>
										</split>
										<split pos="right">
											<feature>22</feature>
											<threshold>10992</threshold>
											<split pos="left">
												<output>0.61614818280941308</output>
											</split>
											<split pos="right">
												<feature>16</feature>
												<threshold>1</threshold>
												<split pos="left">
													<output>0.16550678876340322</output>
												</split>
												<split pos="right">
													<output>1.1489923015606611</output>
												</split>
											</split>
										</split>
									</split>
									<split pos="right">
										<output>-0.92321420534906851</output>
									</split>
								</split>
								<split pos="right">
									<output>-0.54681552035829739</output>
								</split>
							</split>
						</split>
						<split pos="right">
							<output>0.40952644256640985</output>
						</split>
					</split>
				</split>
				<split pos="right">
					<output>1.148524023644411</output>
				</split>
			</split>
		</tree>
		<tree id="12" weight="0.10000000000000001">
			<split>
				<feature>18</feature>
				<threshold>395</threshold>
				<split pos="left">
					<feature>47</feature>
					<threshold>-6.22222185</threshold>
					<split pos="left">
						<output>1.1455237572659744</output>
					</split>
					<split pos="right">
						<feature>8</feature>
						<threshold>9</threshold>
						<split pos="left">
							<feature>22</feature>
							<threshold>70066</threshold>
							<split pos="left">
								<feature>42</feature>
								<threshold>-26818</threshold>
								<split pos="left">
									<output>-2.3768409260163876</output>
								</split>
								<split pos="right">
									<feature>42</feature>
									<threshold>-12125</threshold>
									<split pos="left">
										<output>1.2092013857036172</output>
									</split>
									<split pos="right">
										<output>-0.32236123348842471</output>
									</split>
								</split>
							</split>
							<split pos="right">
								<feature>8</feature>
								<threshold>3</threshold>
								<split pos="left">
									<feature>22</feature>
									<threshold>224190</threshold>
									<split pos="left">
										<output>0.68317924266489116</output>
									</split>
									<split pos="right">
										<output>-0.2253673748462946</output>
									</split>
								</split>
								<split pos="right">
									<output>1.4402016783339755</output>
								</split>
							</split>
						</split>
						<split pos="right">
							<feature>1</feature>
							<threshold>5</threshold>
							<split pos="left">
								<output>-2.7457891689097322</output>
							</split>
							<split pos="right">
								<output>1.2193472721456848</output>
							</split>
						</split>
					</split>
				</split>
				<split pos="right">
					<output>1.1097749213486194</output>
				</split>
			</split>
		</tree>
		<tree id="13" weight="0.090909090909090912">
			<split>
				<feature>18</feature>
				<threshold>395</threshold>
				<split pos="left">
					<feature>47</feature>
					<threshold>-6.22222185</threshold>
					<split pos="left">
						<output>1.1148651575529966</output>
					</split>
					<split pos="right">
						<feature>8</feature>
						<threshold>9</threshold>
						<split pos="left">
							<feature>8</feature>
							<threshold>4</threshold>
							<split pos="left">
								<feature>22</feature>
								<threshold>10205</threshold>
								<split pos="left">
									<output>-0.67075263295664678</output>
								</split>
								<split pos="right">
									<feature>22</feature>
									<threshold>10992</threshold>
									<split pos="left">
										<output>0.77101855809205844</output>
									</split>
									<split pos="right">
										<feature>8</feature>
										<threshold>2</threshold>
										<split pos="left">
											<feature>27</feature>
											<threshold>5.9375</threshold>
											<split pos="left">
												<feature>27</feature>
												<threshold>4.47368383</threshold>
												<split pos="left">
													<output>0.0016585908965464997</output>
												</split>
												<split pos="right">
													<output>0.66324115514087711</output>
												</split>
											</split>
											<split pos="right">
												<output>-1.3109222583556317</output>
											</split>
										</split>
										<split pos="right">
											<output>0.66023091156474711</output>
										</split>
									</split>
								</split>
							</split>
							<split pos="right">
								<output>-1.546157849586012</output>
							</split>
						</split>
						<split pos="right">
							<output>1.1707709725905739</output>
						</split>
					</split>
				</split>
				<split pos="right">
					<output>1.0783681385455064</output>
				</split>
			</split>
		</tree>
		<tree id="14" weight="0">
			<split>
				<feature>18</feature>
				<threshold>395</threshold>
				<split pos="left">
					<feature>47</feature>
					<threshold>-6.22222185</threshold>
					<split pos="left">
						<output>1.087326950602721</output>
					</split>
					<split pos="right">
						<feature>8</feature>
						<threshold>9</threshold>
						<split pos="left">
							<feature>22</feature>
							<threshold>21151</threshold>
							<split pos="left">
								<output>-0.4664390558256466</output>
							</split>
							<split pos="right">
								<feature>22</feature>
								<threshold>21932</threshold>
								<split pos="left">
									<output>1.2760900683262548</output>
								</split>
								<split pos="right">
									<feature>8</feature>
									<threshold>5</threshold>
									<split pos="left">
										<feature>64</feature>
										<threshold>2</threshold>
										<split pos="left">
											<feature>8</feature>
											<threshold>3</threshold>
											<split pos="left">
												<feature>27</feature>
												<threshold>4.88888884</threshold>
												<split pos="left">
													<output>-0.17451512677957723</output>
												</split>
												<split pos="right">
													<output>0.4172230608250993</output>
												</split>
											</split>
											<split pos="right">
												<output>-3.07008889074244</output>
											</split>
										</split>
										<split pos="right">
											<output>0.93342658250060628</output>
										</split>
									</split>
									<split pos="right">
										<output>-1.7704790413392386</output>
									</split>
								</split>
							</split>
						</split>
						<split pos="right">
							<output>1.1363511297826083</output>
						</split>
					</split>
				</split>
				<split pos="right">
					<output>1.042401756977956</output>
				</split>
			</split>
		</tree>
		<tree id="15" weight="0">
			<split>
				<feature>18</feature>
				<threshold>395</threshold>
				<split pos="left">
					<feature>47</feature>
					<threshold>-6.22222185</threshold>
					<split pos="left">
						<output>1.0642581466452201</output>
					</split>
					<split pos="right">
						<feature>52</feature>
						<threshold>0</threshold>
						<split pos="left">
							<feature>61</feature>
							<threshold>5</threshold>
							<split pos="left">
								<feature>42</feature>
								<threshold>17435392</threshold>
								<split pos="left">
									<feature>14</feature>
									<threshold>0</threshold>
									<split pos="left">
										<feature>27</feature>
										<threshold>6.75</threshold>
										<split pos="left">
											<feature>27</feature>
											<threshold>4.88888884</threshold>
											<split pos="left">
												<output>-0.14695390171336783</output>
											</split>
											<split pos="right">
												<output>0.52399895679914876</output>
											</split>
										</split>
										<split pos="right">
											<output>-0.85384417943337365</output>
										</split>
									</split>
									<split pos="right">
										<output>-0.6819253935160442</output>
									</split>
								</split>
								<split pos="right">
									<output>-3.7296646595458895</output>
								</split>
							</split>
							<split pos="right">
								<feature>8</feature>
								<threshold>9</threshold>
								<split pos="left">
									<output>0.22372472056135842</output>
								</split>
								<split pos="right">
									<output>1.1447905652202826</output>
								</split>
							</split>
						</split>
						<split pos="right">
							<output>-2.5089098513996086</output>
						</split>
					</split>
				</split>
				<split pos="right">
					<output>1.0159203529028713</output>
				</split>
			</split>
		</tree>
		<tree id="16" weight="0">
			<split>
				<feature>18</feature>
				<threshold>395</threshold>
				<split pos="left">
					<feature>47</feature>
					<threshold>-6.22222185</threshold>
					<split pos="left">
						<output>1.0391710409570099</output>
					</split>
					<split pos="right">
						<feature>8</feature>
						<threshold>9</threshold>
						<split pos="left">
							<feature>42</feature>
							<threshold>-8835</threshold>
							<split pos="left">
								<output>0.5850869076381835</output>
							</split>
							<split pos="right">
								<feature>42</feature>
								<threshold>16898904</threshold>
								<split pos="left">
									<feature>45</feature>
									<threshold>-1</threshold>
									<split pos="left">
										<output>-1.5608491256187413</output>
									</split>
									<split pos="right">
										<feature>27</feature>
										<threshold>9.5</threshold>
										<split pos="left">
											<feature>22</feature>
											<threshold>1195660</threshold>
											<split pos="left">
												<feature>22</feature>
												<threshold>36617</threshold>
												<split pos="left">
													<output>-0.37949995324173064</output>
												</split>
												<split pos="right">
													<output>0.53014171240623953</output>
												</split>
											</split>
											<split pos="right">
												<output>-1.1721392451400465</output>
											</split>
										</split>
										<split pos="right">
											<output>1.0796332096028467</output>
										</split>
									</split>
								</split>
								<split pos="right">
									<output>-1.2064535988204443</output>
								</split>
							</split>
						</split>
						<split pos="right">
							<output>1.0841019031664496</output>
						</split>
					</split>
				</split>
				<split pos="right">
					<output>0.99407117134176359</output>
				</split>
			</split>
		</tree>
		<tree id="17" weight="0.082644628099173556">
			<split>
				<feature>18</feature>
				<threshold>395</threshold>
				<split pos="left">
					<feature>47</feature>
					<threshold>-6.22222185</threshold>
					<split pos="left">
						<output>1.0119350062523362</output>
					</split>
					<split pos="right">
						<feature>8</feature>
						<threshold>9</threshold>
						<split pos="left">
							<feature>8</feature>
							<threshold>2</threshold>
							<split pos="left">
								<feature>42</feature>
								<threshold>16898904</threshold>
								<split pos="left">
									<feature>13</feature>
									<threshold>15</threshold>
									<split pos="left">
										<feature>28</feature>
										<threshold>2</threshold>
										<split pos="left">
											<output>-0.52918544353765784</output>
										</split>
										<split pos="right">
											<feature>42</feature>
											<threshold>3435660</threshold>
											<split pos="left">
												<feature>46</feature>
												<threshold>0</threshold>
												<split pos="left">
													<output>-0.08053426019363491</output>
												</split>
												<split pos="right">
													<output>0.52304599134958618</output>
												</split>
											</split>
											<split pos="right">
												<output>1.2811485266792024</output>
											</split>
										</split>
									</split>
									<split pos="right">
										<output>-2.8897711036438678</output>
									</split>
								</split>
								<split pos="right">
									<output>-1.1768234391717816</output>
								</split>
							</split>
							<split pos="right">
								<output>0.69768100580552228</output>
							</split>
						</split>
						<split pos="right">
							<output>1.0668722550814924</output>
						</split>
					</split>
				</split>
				<split pos="right">
					<output>0.97116699049638555</output>
				</split>
			</split>
		</tree>
		<tree id="18" weight="0.082644628099173556">
			<split>
				<feature>18</feature>
				<threshold>395</threshold>
				<split pos="left">
					<feature>47</feature>
					<threshold>-6.22222185</threshold>
					<split pos="left">
						<output>0.98475033408785528</output>
					</split>
					<split pos="right">
						<feature>8</feature>
						<threshold>9</threshold>
						<split pos="left">
							<feature>42</feature>
							<threshold>-4645664</threshold>
							<split pos="left">
								<output>-2.0736746418941081</output>
							</split>
							<split pos="right">
								<feature>22</feature>
								<threshold>10123</threshold>
								<split pos="left">
									<output>-0.54512534410164604</output>
								</split>
								<split pos="right">
									<feature>22</feature>
									<threshold>10992</threshold>
									<split pos="left">
										<output>0.64085091401210803</output>
									</split>
									<split pos="right">
										<feature>8</feature>
										<threshold>3</threshold>
										<split pos="left">
											<feature>21</feature>
											<threshold>9</threshold>
											<split pos="left">
												<feature>31</feature>
												<threshold>9</threshold>
												<split pos="left">
													<output>0.011760095327295252</output>
												</split>
												<split pos="right">
													<output>-0.83427053057912692</output>
												</split>
											</split>
											<split pos="right">
												<output>1.2477584487917388</output>
											</split>
										</split>
										<split pos="right">
											<output>0.89409149768873852</output>
										</split>
									</split>
								</split>
							</split>
						</split>
						<split pos="right">
							<output>1.0386013805129726</output>
						</split>
					</split>
				</split>
				<split pos="right">
					<output>0.9495332449541295</output>
				</split>
			</split>
		</tree>
		<tree id="19" weight="0.090909090909090912">
			<split>
				<feature>18</feature>
				<threshold>395</threshold>
				<split pos="left">
					<feature>47</feature>
					<threshold>-6.22222185</threshold>
					<split pos="left">
						<output>0.96373098404036861</output>
					</split>
					<split pos="right">
						<feature>8</feature>
						<threshold>9</threshold>
						<split pos="left">
							<feature>21</feature>
							<threshold>5</threshold>
							<split pos="left">
								<feature>21</feature>
								<threshold>4</threshold>
								<split pos="left">
									<feature>26</feature>
									<threshold>0</threshold>
									<split pos="left">
										<feature>27</feature>
										<threshold>4.88888884</threshold>
										<split pos="left">
											<output>-0.14425848999940463</output>
										</split>
										<split pos="right">
											<feature>28</feature>
											<threshold>5</threshold>
											<split pos="left">
												<output>0.74173821760833325</output>
											</split>
											<split pos="right">
												<output>0.00085350835542414541</output>
											</split>
										</split>
									</split>
									<split pos="right">
										<output>-0.45123218962037526</output>
									</split>
								</split>
								<split pos="right">
									<feature>27</feature>
									<threshold>3.75</threshold>
									<split pos="left">
										<output>1.2688736163466972</output>
									</split>
									<split pos="right">
										<output>-2.7450549969400457</output>
									</split>
								</split>
							</split>
							<split pos="right">
								<output>1.2707712556764774</output>
							</split>
						</split>
						<split pos="right">
							<output>1.006942285393239</output>
						</split>
					</split>
				</split>
				<split pos="right">
					<output>0.92342615595586297</output>
				</split>
			</split>
		</tree>
		<tree id="20" weight="0.10000000000000001">
			<split>
				<feature>18</feature>
				<threshold>395</threshold>
				<split pos="left">
					<feature>47</feature>
					<threshold>-6.22222185</threshold>
					<split pos="left">
						<output>0.93966287450068287</output>
					</split>
					<split pos="right">
						<feature>42</feature>
						<threshold>17435392</threshold>
						<split pos="left">
							<feature>8</feature>
							<threshold>2</threshold>
							<split pos="left">
								<feature>22</feature>
								<threshold>1072178</threshold>
								<split pos="left">
									<feature>27</feature>
									<threshold>9.5</threshold>
									<split pos="left">
										<feature>22</feature>
										<threshold>10212</threshold>
										<split pos="left">
											<output>-0.48294183919491607</output>
										</split>
										<split pos="right">
											<feature>22</feature>
											<threshold>10992</threshold>
											<split pos="left">
												<output>0.59287621683463254</output>
											</split>
											<split pos="right">
												<output>0.27450922976358977</output>
											</split>
										</split>
									</split>
									<split pos="right">
										<output>0.93924862593222136</output>
									</split>
								</split>
								<split pos="right">
									<output>-0.84559468164278584</output>
								</split>
							</split>
							<split pos="right">
								<output>0.46365891363657569</output>
							</split>
						</split>
						<split pos="right">
							<feature>1</feature>
							<threshold>5</threshold>
							<split pos="left">
								<output>-2.9763541758807732</output>
							</split>
							<split pos="right">
								<output>1.0444658402572604</output>
							</split>
						</split>
					</split>
				</split>
				<split pos="right">
					<output>0.90182481272423787</output>
				</split>
			</split>
		</tree>
		<tree id="21" weight="0.090909090909090912">
			<split>
				<feature>18</feature>
				<threshold>395</threshold>
				<split pos="left">
					<feature>47</feature>
					<threshold>-6.22222185</threshold>
					<split pos="left">
						<output>0.91788256164711168</output>
					</split>
					<split pos="right">
						<feature>8</feature>
						<threshold>9</threshold>
						<split pos="left">
							<feature>8</feature>
							<threshold>5</threshold>
							<split pos="left">
								<feature>45</feature>
								<threshold>0</threshold>
								<split pos="left">
									<feature>27</feature>
									<threshold>2.75</threshold>
									<split pos="left">
										<output>-0.27970828960956534</output>
									</split>
									<split pos="right">
										<feature>3</feature>
										<threshold>5</threshold>
										<split pos="left">
											<feature>64</feature>
											<threshold>3</threshold>
											<split pos="left">
												<feature>54</feature>
												<threshold>0</threshold>
												<split pos="left">
													<output>0.2280326265121688</output>
												</split>
												<split pos="right">
													<output>0.94879687928634548</output>
												</split>
											</split>
											<split pos="right">
												<output>0.96241082302501713</output>
											</split>
										</split>
										<split pos="right">
											<output>-0.63784736082659566</output>
										</split>
									</split>
								</split>
								<split pos="right">
									<output>-0.88227578699928066</output>
								</split>
							</split>
							<split pos="right">
								<output>-1.548662938674064</output>
							</split>
						</split>
						<split pos="right">
							<output>0.96630024667195757</output>
						</split>
					</split>
				</split>
				<split pos="right">
					<output>0.87753454306016898</output>
				</split>
			</split>
		</tree>
		<tree id="22" weight="0.082644628099173556">
			<split>
				<feature>18</feature>
				<threshold>395</threshold>
				<split pos="left">
					<feature>47</feature>
					<threshold>-6.22222185</threshold>
					<split pos="left">
						<output>0.88828604433906444</output>
					</split>
					<split pos="right">
						<feature>8</feature>
						<threshold>9</threshold>
						<split pos="left">
							<feature>42</feature>
							<threshold>35</threshold>
							<split pos="left">
								<feature>27</feature>
								<threshold>2.98214293</threshold>
								<split pos="left">
									<output>-0.20192554083482617</output>
								</split>
								<split pos="right">
									<feature>64</feature>
									<threshold>3</threshold>
									<split pos="left">
										<output>0.28139033060267721</output>
									</split>
									<split pos="right">
										<output>0.84017855057043134</output>
									</split>
								</split>
							</split>
							<split pos="right">
								<feature>22</feature>
								<threshold>4617434</threshold>
								<split pos="left">
									<feature>27</feature>
									<threshold>5.93333292</threshold>
									<split pos="left">
										<feature>21</feature>
										<threshold>5</threshold>
										<split pos="left">
											<output>-0.25367039090582272</output>
										</split>
										<split pos="right">
											<output>1.4211121265708067</output>
										</split>
									</split>
									<split pos="right">
										<output>-1.0749079300504134</output>
									</split>
								</split>
								<split pos="right">
									<output>-1.8869369709805754</output>
								</split>
							</split>
						</split>
						<split pos="right">
							<output>0.93477591099566648</output>
						</split>
					</split>
				</split>
				<split pos="right">
					<output>0.8543156013880423</output>
				</split>
			</split>
		</tree>
		<tree id="23" weight="0.082644628099173556">
			<split>
				<feature>18</feature>
				<threshold>395</threshold>
				<split pos="left">
					<feature>47</feature>
					<threshold>-6.22222185</threshold>
					<split pos="left">
						<output>0.86226438690401908</output>
					</split>
					<split pos="right">
						<feature>8</feature>
						<threshold>9</threshold>
						<split pos="left">
							<feature>64</feature>
							<threshold>3</threshold>
							<split pos="left">
								<feature>27</feature>
								<threshold>6.33333302</threshold>
								<split pos="left">
									<feature>45</feature>
									<threshold>-1</threshold>
									<split pos="left">
										<output>-0.72316111616852363</output>
									</split>
									<split pos="right">
										<feature>42</feature>
										<threshold>3321213</threshold>
										<split pos="left">
											<feature>27</feature>
											<threshold>3.64285707</threshold>
											<split pos="left">
												<feature>61</feature>
												<threshold>5</threshold>
												<split pos="left">
													<output>-0.57110001657977794</output>
												</split>
												<split pos="right">
													<output>0.19503345757474688</output>
												</split>
											</split>
											<split pos="right">
												<output>0.36057359769409325</output>
											</split>
										</split>
										<split pos="right">
											<output>0.87381327747276483</output>
										</split>
									</split>
								</split>
								<split pos="right">
									<output>-0.9832134728819043</output>
								</split>
							</split>
							<split pos="right">
								<output>0.69199266216953692</output>
							</split>
						</split>
						<split pos="right">
							<output>0.90603672598108931</output>
						</split>
					</split>
				</split>
				<split pos="right">
					<output>0.8328064842273688</output>
				</split>
			</split>
		</tree>
		<tree id="24" weight="0.090909090909090912">
			<split>
				<feature>18</feature>
				<threshold>395</threshold>
				<split pos="left">
					<feature>47</feature>
					<threshold>-6.22222185</threshold>
					<split pos="left">
						<output>0.83639925025211226</output>
					</split>
					<split pos="right">
						<feature>8</feature>
						<threshold>9</threshold>
						<split pos="left">
							<feature>21</feature>
							<threshold>9</threshold>
							<split pos="left">
								<feature>31</feature>
								<threshold>9</threshold>
								<split pos="left">
									<feature>30</feature>
									<threshold>9</threshold>
									<split pos="left">
										<feature>32</feature>
										<threshold>1</threshold>
										<split pos="left">
											<feature>8</feature>
											<threshold>5</threshold>
											<split pos="left">
												<feature>42</feature>
												<threshold>-8835</threshold>
												<split pos="left">
													<output>0.34610315835876654</output>
												</split>
												<split pos="right">
													<output>-0.18789799356526088</output>
												</split>
											</split>
											<split pos="right">
												<output>-1.505239182813682</output>
											</split>
										</split>
										<split pos="right">
											<output>4.4451361812994339</output>
										</split>
									</split>
									<split pos="right">
										<output>5.6572666189254077</output>
									</split>
								</split>
								<split pos="right">
									<output>-0.93489307913694797</output>
								</split>
							</split>
							<split pos="right">
								<output>0.99166062944561939</output>
							</split>
						</split>
						<split pos="right">
							<output>0.87440919155348995</output>
						</split>
					</split>
				</split>
				<split pos="right">
					<output>0.81165216702505893</output>
				</split>
			</split>
		</tree>
		<tree id="25" weight="0.10000000000000001">
			<split>
				<feature>42</feature>
				<threshold>17435392</threshold>
				<split pos="left">
					<feature>20</feature>
					<threshold>182</threshold>
					<split pos="left">
						<feature>47</feature>
						<threshold>-6.22222185</threshold>
						<split pos="left">
							<output>0.80929182275605283</output>
						</split>
						<split pos="right">
							<feature>21</feature>
							<threshold>9</threshold>
							<split pos="left">
								<feature>31</feature>
								<threshold>9</threshold>
								<split pos="left">
									<feature>30</feature>
									<threshold>9</threshold>
									<split pos="left">
										<feature>45</feature>
										<threshold>0</threshold>
										<split pos="left">
											<feature>32</feature>
											<threshold>1</threshold>
											<split pos="left">
												<feature>27</feature>
												<threshold>0.964286029</threshold>
												<split pos="left">
													<output>-0.1913265374274245</output>
												</split>
												<split pos="right">
													<output>0.28337376685327043</output>
												</split>
											</split>
											<split pos="right">
												<output>3.167744765337964</output>
											</split>
										</split>
										<split pos="right">
											<output>-0.84413280894428377</output>
										</split>
									</split>
									<split pos="right">
										<output>3.6938319309835284</output>
									</split>
								</split>
								<split pos="right">
									<output>-0.83616096460233047</output>
								</split>
							</split>
							<split pos="right">
								<output>0.9308785579921014</output>
							</split>
						</split>
					</split>
					<split pos="right">
						<output>0.79185691483659992</output>
					</split>
				</split>
				<split pos="right">
					<output>-1.1253655290638982</output>
				</split>
			</split>
		</tree>
		<tree id="26" weight="0.10000000000000001">
			<split>
				<feature>31</feature>
				<threshold>11</threshold>
				<split pos="left">
					<feature>33</feature>
					<threshold>95</threshold>
					<split pos="left">
						<feature>8</feature>
						<threshold>9</threshold>
						<split pos="left">
							<feature>47</feature>
							<threshold>-6.22222185</threshold>
							<split pos="left">
								<output>0.77981135063154561</output>
							</split>
							<split pos="right">
								<feature>13</feature>
								<threshold>15</threshold>
								<split pos="left">
									<feature>21</feature>
									<threshold>10</threshold>
									<split pos="left">
										<feature>64</feature>
										<threshold>2</threshold>
										<split pos="left">
											<feature>30</feature>
											<threshold>9</threshold>
											<split pos="left">
												<feature>18</feature>
												<threshold>4</threshold>
												<split pos="left">
													<output>-0.30429577794377244</output>
												</split>
												<split pos="right">
													<output>0.27729096287393168</output>
												</split>
											</split>
											<split pos="right">
												<output>3.175956207928738</output>
											</split>
										</split>
										<split pos="right">
											<output>0.50605273087220448</output>
										</split>
									</split>
									<split pos="right">
										<output>1.0530078872512996</output>
									</split>
								</split>
								<split pos="right">
									<output>-3.1457363578147639</output>
								</split>
							</split>
						</split>
						<split pos="right">
							<output>0.88515099858561319</output>
						</split>
					</split>
					<split pos="right">
						<output>1.1854171212232205</output>
					</split>
				</split>
				<split pos="right">
					<output>-2.3382155147383608</output>
				</split>
			</split>
		</tree>
		<tree id="27" weight="0">
			<split>
				<feature>42</feature>
				<threshold>17435392</threshold>
				<split pos="left">
					<feature>18</feature>
					<threshold>395</threshold>
					<split pos="left">
						<feature>47</feature>
						<threshold>-6.22222185</threshold>
						<split pos="left">
							<output>0.75765969376654319</output>
						</split>
						<split pos="right">
							<feature>8</feature>
							<threshold>2</threshold>
							<split pos="left">
								<feature>21</feature>
								<threshold>9</threshold>
								<split pos="left">
									<feature>21</feature>
									<threshold>7</threshold>
									<split pos="left">
										<feature>32</feature>
										<threshold>1</threshold>
										<split pos="left">
											<output>-0.049625502761363488</output>
										</split>
										<split pos="right">
											<output>2.5328293061715459</output>
										</split>
									</split>
									<split pos="right">
										<output>-1.1504576400169204</output>
									</split>
								</split>
								<split pos="right">
									<output>0.85992070934383646</output>
								</split>
							</split>
							<split pos="right">
								<output>0.59295435071674063</output>
							</split>
						</split>
					</split>
					<split pos="right">
						<output>0.75074897175461819</output>
					</split>
				</split>
				<split pos="right">
					<feature>61</feature>
					<threshold>0</threshold>
					<split pos="left">
						<feature>1</feature>
						<threshold>3</threshold>
						<split pos="left">
							<output>-1.0938062669550959</output>
						</split>
						<split pos="right">
							<output>-4.3877931786687787</output>
						</split>
					</split>
					<split pos="right">
						<output>0.67702970479047264</output>
					</split>
				</split>
			</split>
		</tree>
		<tree id="28" weight="0">
			<split>
				<feature>18</feature>
				<threshold>395</threshold>
				<split pos="left">
					<feature>8</feature>
					<threshold>9</threshold>
					<split pos="left">
						<feature>47</feature>
						<threshold>-6.22222185</threshold>
						<split pos="left">
							<output>0.7335040690160326</output>
						</split>
						<split pos="right">
							<feature>21</feature>
							<threshold>9</threshold>
							<split pos="left">
								<feature>31</feature>
								<threshold>9</threshold>
								<split pos="left">
									<feature>64</feature>
									<threshold>2</threshold>
									<split pos="left">
										<feature>30</feature>
										<threshold>9</threshold>
										<split pos="left">
											<feature>33</feature>
											<threshold>2</threshold>
											<split pos="left">
												<feature>30</feature>
												<threshold>1</threshold>
												<split pos="left">
													<output>-0.33871946719590784</output>
												</split>
												<split pos="right">
													<output>3.5595046588768193</output>
												</split>
											</split>
											<split pos="right">
												<output>0.24969039992659728</output>
											</split>
										</split>
										<split pos="right">
											<output>2.7083642675415298</output>
										</split>
									</split>
									<split pos="right">
										<output>0.38374576479038291</output>
									</split>
								</split>
								<split pos="right">
									<output>-0.80803824419513948</output>
								</split>
							</split>
							<split pos="right">
								<output>0.80913273196848023</output>
							</split>
						</split>
					</split>
					<split pos="right">
						<output>0.83819150272533571</output>
					</split>
				</split>
				<split pos="right">
					<output>0.73466764461552858</output>
				</split>
			</split>
		</tree>
		<tree id="29" weight="0">
			<split>
				<feature>18</feature>
				<threshold>395</threshold>
				<split pos="left">
					<feature>8</feature>
					<threshold>9</threshold>
					<split pos="left">
						<feature>47</feature>
						<threshold>-6.22222185</threshold>
						<split pos="left">
							<output>0.70739421817231962</output>
						</split>
						<split pos="right">
							<feature>22</feature>
							<threshold>37787</threshold>
							<split pos="left">
								<feature>22</feature>
								<threshold>20610</threshold>
								<split pos="left">
									<output>-0.11938835397923719</output>
								</split>
								<split pos="right">
									<feature>22</feature>
									<threshold>20614</threshold>
									<split pos="left">
										<output>-2.8021765910674721</output>
									</split>
									<split pos="right">
										<output>-0.34572405691801883</output>
									</split>
								</split>
							</split>
							<split pos="right">
								<feature>44</feature>
								<threshold>-1</threshold>
								<split pos="left">
									<output>-1.6686215854172153</output>
								</split>
								<split pos="right">
									<feature>64</feature>
									<threshold>2</threshold>
									<split pos="left">
										<feature>50</feature>
										<threshold>-1</threshold>
										<split pos="left">
											<output>1.1943671903506217</output>
										</split>
										<split pos="right">
											<output>0.1394139629919571</output>
										</split>
									</split>
									<split pos="right">
										<output>0.72963735642420802</output>
									</split>
								</split>
							</split>
						</split>
					</split>
					<split pos="right">
						<output>0.81180002011803798</output>
					</split>
				</split>
				<split pos="right">
					<output>0.71506174384910759</output>
				</split>
			</split>
		</tree>
		<tree id="30" weight="0.10000000000000001">
			<split>
				<feature>18</feature>
				<threshold>395</threshold>
				<split pos="left">
					<feature>8</feature>
					<threshold>9</threshold>
					<split pos="left">
						<feature>47</feature>
						<threshold>-6.22222185</threshold>
						<split pos="left">
							<output>0.68554653898525564</output>
						</split>
						<split pos="right">
							<feature>27</feature>
							<threshold>0.964286029</threshold>
							<split pos="left">
								<output>-0.34786766380610878</output>
							</split>
							<split pos="right">
								<feature>42</feature>
								<threshold>17</threshold>
								<split pos="left">
									<feature>42</feature>
									<threshold>8</threshold>
									<split pos="left">
										<feature>54</feature>
										<threshold>0</threshold>
										<split pos="left">
											<output>0.30930671205257071</output>
										</split>
										<split pos="right">
											<feature>1</feature>
											<threshold>4</threshold>
											<split pos="left">
												<output>-0.9610407313715208</output>
											</split>
											<split pos="right">
												<output>1.0406343488379994</output>
											</split>
										</split>
									</split>
									<split pos="right">
										<output>0.70866283450383916</output>
									</split>
								</split>
								<split pos="right">
									<feature>21</feature>
									<threshold>9</threshold>
									<split pos="left">
										<output>-0.19405170332239463</output>
									</split>
									<split pos="right">
										<output>0.92725691688127343</output>
									</split>
								</split>
							</split>
						</split>
					</split>
					<split pos="right">
						<output>0.78724348468790073</output>
					</split>
				</split>
				<split pos="right">
					<output>0.69671707823223694</output>
				</split>
			</split>
		</tree>
		<tree id="31" weight="0.090909090909090912">
			<split>
				<feature>31</feature>
				<threshold>11</threshold>
				<split pos="left">
					<feature>18</feature>
					<threshold>260</threshold>
					<split pos="left">
						<feature>64</feature>
						<threshold>6</threshold>
						<split pos="left">
							<feature>8</feature>
							<threshold>9</threshold>
							<split pos="left">
								<feature>21</feature>
								<threshold>17</threshold>
								<split pos="left">
									<feature>21</feature>
									<threshold>6</threshold>
									<split pos="left">
										<feature>8</feature>
										<threshold>5</threshold>
										<split pos="left">
											<feature>47</feature>
											<threshold>-6.22222185</threshold>
											<split pos="left">
												<output>0.64814768359695929</output>
											</split>
											<split pos="right">
												<feature>42</feature>
												<threshold>-8835</threshold>
												<split pos="left">
													<output>0.44417809440893147</output>
												</split>
												<split pos="right">
													<output>0.010411903843440626</output>
												</split>
											</split>
										</split>
										<split pos="right">
											<output>-1.5472590085569835</output>
										</split>
									</split>
									<split pos="right">
										<output>1.0428591434973646</output>
									</split>
								</split>
								<split pos="right">
									<output>-3.1974983300552506</output>
								</split>
							</split>
							<split pos="right">
								<output>0.76656163128963573</output>
							</split>
						</split>
						<split pos="right">
							<output>-1.5591167638935628</output>
						</split>
					</split>
					<split pos="right">
						<output>1.1685628899200911</output>
					</split>
				</split>
				<split pos="right">
					<output>-2.3931245387819895</output>
				</split>
			</split>
		</tree>
		<tree id="32" weight="0.10000000000000001">
			<split>
				<feature>18</feature>
				<threshold>395</threshold>
				<split pos="left">
					<feature>42</feature>
					<threshold>-4645664</threshold>
					<split pos="left">
						<output>-1.9906979322659899</output>
					</split>
					<split pos="right">
						<feature>8</feature>
						<threshold>9</threshold>
						<split pos="left">
							<feature>46</feature>
							<threshold>5</threshold>
							<split pos="left">
								<feature>30</feature>
								<threshold>1</threshold>
								<split pos="left">
									<feature>19</feature>
									<threshold>17</threshold>
									<split pos="left">
										<feature>22</feature>
										<threshold>9301</threshold>
										<split pos="left">
											<output>-0.47273837250417688</output>
										</split>
										<split pos="right">
											<feature>27</feature>
											<threshold>4.33333302</threshold>
											<split pos="left">
												<feature>8</feature>
												<threshold>3</threshold>
												<split pos="left">
													<output>0.080313302034319384</output>
												</split>
												<split pos="right">
													<output>-0.46012107204349106</output>
												</split>
											</split>
											<split pos="right">
												<output>0.47060226382158626</output>
											</split>
										</split>
									</split>
									<split pos="right">
										<output>-0.95429390598343955</output>
									</split>
								</split>
								<split pos="right">
									<output>0.45787344359059534</output>
								</split>
							</split>
							<split pos="right">
								<output>0.61461032534522198</output>
							</split>
						</split>
						<split pos="right">
							<output>0.72324940745438981</output>
						</split>
					</split>
				</split>
				<split pos="right">
					<output>0.67212089736176817</output>
				</split>
			</split>
		</tree>
		<tree id="33" weight="0.10000000000000001">
			<split>
				<feature>18</feature>
				<threshold>395</threshold>
				<split pos="left">
					<feature>8</feature>
					<threshold>9</threshold>
					<split pos="left">
						<feature>47</feature>
						<threshold>-6.22222185</threshold>
						<split pos="left">
							<output>0.5898316273507026</output>
						</split>
						<split pos="right">
							<feature>27</feature>
							<threshold>5.9375</threshold>
							<split pos="left">
								<feature>42</feature>
								<threshold>-15793</threshold>
								<split pos="left">
									<output>-0.41246134008482277</output>
								</split>
								<split pos="right">
									<feature>42</feature>
									<threshold>-11333</threshold>
									<split pos="left">
										<output>1.0467222960721663</output>
									</split>
									<split pos="right">
										<feature>27</feature>
										<threshold>1.46666706</threshold>
										<split pos="left">
											<output>-0.21244217509358854</output>
										</split>
										<split pos="right">
											<feature>22</feature>
											<threshold>3096631</threshold>
											<split pos="left">
												<feature>42</feature>
												<threshold>0</threshold>
												<split pos="left">
													<output>0.88921765080465398</output>
												</split>
												<split pos="right">
													<output>0.2583971410503399</output>
												</split>
											</split>
											<split pos="right">
												<output>-0.99756908225964702</output>
											</split>
										</split>
									</split>
								</split>
							</split>
							<split pos="right">
								<output>-0.71630423680271049</output>
							</split>
						</split>
					</split>
					<split pos="right">
						<output>0.69365079722575673</output>
					</split>
				</split>
				<split pos="right">
					<output>0.64867390456432528</output>
				</split>
			</split>
		</tree>
		<tree id="34" weight="0.075131480090157771">
			<split>
				<feature>42</feature>
				<threshold>17435392</threshold>
				<split pos="left">
					<feature>34</feature>
					<threshold>114</threshold>
					<split pos="left">
						<feature>24</feature>
						<threshold>3</threshold>
						<split pos="left">
							<feature>31</feature>
							<threshold>7</threshold>
							<split pos="left">
								<feature>4</feature>
								<threshold>5</threshold>
								<split pos="left">
									<feature>14</feature>
									<threshold>0</threshold>
									<split pos="left">
										<output>0.063408201994675284</output>
									</split>
									<split pos="right">
										<output>-0.52199372866278182</output>
									</split>
								</split>
								<split pos="right">
									<output>0.50511133880214287</output>
								</split>
							</split>
							<split pos="right">
								<output>-1.2288420965173983</output>
							</split>
						</split>
						<split pos="right">
							<output>0.81929242639567401</output>
						</split>
					</split>
					<split pos="right">
						<output>0.62645012066567218</output>
					</split>
				</split>
				<split pos="right">
					<feature>61</feature>
					<threshold>0</threshold>
					<split pos="left">
						<feature>1</feature>
						<threshold>3</threshold>
						<split pos="left">
							<output>-1.0667355785915158</output>
						</split>
						<split pos="right">
							<feature>1</feature>
							<threshold>4</threshold>
							<split pos="left">
								<output>-4.6385567995363628</output>
							</split>
							<split pos="right">
								<output>0</output>
							</split>
						</split>
					</split>
					<split pos="right">
						<output>0.51211400026420251</output>
					</split>
				</split>
			</split>
		</tree>
		<tree id="35" weight="0.075131480090157771">
			<split>
				<feature>18</feature>
				<threshold>395</threshold>
				<split pos="left">
					<feature>22</feature>
					<threshold>15646773</threshold>
					<split pos="left">
						<feature>61</feature>
						<threshold>5</threshold>
						<split pos="left">
							<feature>42</feature>
							<threshold>-47095</threshold>
							<split pos="left">
								<output>-1.2962701093669489</output>
							</split>
							<split pos="right">
								<feature>39</feature>
								<threshold>0</threshold>
								<split pos="left">
									<feature>32</feature>
									<threshold>1</threshold>
									<split pos="left">
										<feature>22</feature>
										<threshold>33271</threshold>
										<split pos="left">
											<output>-0.34286030139122103</output>
										</split>
										<split pos="right">
											<feature>22</feature>
											<threshold>224190</threshold>
											<split pos="left">
												<output>0.71104968833738302</output>
											</split>
											<split pos="right">
												<output>-0.22843772289087</output>
											</split>
										</split>
									</split>
									<split pos="right">
										<output>2.0660736166644091</output>
									</split>
								</split>
								<split pos="right">
									<output>-0.90702345784683924</output>
								</split>
							</split>
						</split>
						<split pos="right">
							<feature>8</feature>
							<threshold>2</threshold>
							<split pos="left">
								<output>0.25037540926534635</output>
							</split>
							<split pos="right">
								<output>0.58621320421649525</output>
							</split>
						</split>
					</split>
					<split pos="right">
						<output>-1.9447506327690414</output>
					</split>
				</split>
				<split pos="right">
					<output>0.6161238483343997</output>
				</split>
			</split>
		</tree>
		<tree id="36" weight="0.075131480090157771">
			<split>
				<feature>32</feature>
				<threshold>1</threshold>
				<split pos="left">
					<feature>47</feature>
					<threshold>6.5</threshold>
					<split pos="left">
						<feature>62</feature>
						<threshold>6</threshold>
						<split pos="left">
							<feature>18</feature>
							<threshold>269</threshold>
							<split pos="left">
								<feature>47</feature>
								<threshold>-6.22222185</threshold>
								<split pos="left">
									<output>0.67824892179233043</output>
								</split>
								<split pos="right">
									<feature>21</feature>
									<threshold>9</threshold>
									<split pos="left">
										<feature>8</feature>
										<threshold>9</threshold>
										<split pos="left">
											<output>-0.28315354705131507</output>
										</split>
										<split pos="right">
											<output>0.68178577483978364</output>
										</split>
									</split>
									<split pos="right">
										<output>0.86089341904768701</output>
									</split>
								</split>
							</split>
							<split pos="right">
								<output>0.61686553175957803</output>
							</split>
						</split>
						<split pos="right">
							<feature>31</feature>
							<threshold>1</threshold>
							<split pos="left">
								<output>-0.54294924402418032</output>
							</split>
							<split pos="right">
								<feature>20</feature>
								<threshold>4</threshold>
								<split pos="left">
									<output>1.3702565676851883</output>
								</split>
								<split pos="right">
									<output>0.70785505261703097</output>
								</split>
							</split>
						</split>
					</split>
					<split pos="right">
						<output>-0.99632553463410567</output>
					</split>
				</split>
				<split pos="right">
					<output>1.429106447533552</output>
				</split>
			</split>
		</tree>
		<tree id="37" weight="0.090909090909090912">
			<split>
				<feature>32</feature>
				<threshold>1</threshold>
				<split pos="left">
					<feature>62</feature>
					<threshold>6</threshold>
					<split pos="left">
						<feature>33</feature>
						<threshold>115</threshold>
						<split pos="left">
							<feature>31</feature>
							<threshold>1</threshold>
							<split pos="left">
								<feature>21</feature>
								<threshold>6</threshold>
								<split pos="left">
									<feature>47</feature>
									<threshold>-6.22222185</threshold>
									<split pos="left">
										<output>0.66587927441887584</output>
									</split>
									<split pos="right">
										<feature>22</feature>
										<threshold>48387</threshold>
										<split pos="left">
											<output>-0.37994992099494762</output>
										</split>
										<split pos="right">
											<output>0.24922937509315279</output>
										</split>
									</split>
								</split>
								<split pos="right">
									<output>1.5935077146627528</output>
								</split>
							</split>
							<split pos="right">
								<feature>42</feature>
								<threshold>545611</threshold>
								<split pos="left">
									<output>-0.4009452546970475</output>
								</split>
								<split pos="right">
									<output>-1.8695130794778516</output>
								</split>
							</split>
						</split>
						<split pos="right">
							<output>0.61456158624013213</output>
						</split>
					</split>
					<split pos="right">
						<feature>31</feature>
						<threshold>1</threshold>
						<split pos="left">
							<output>-0.45530685721524711</output>
						</split>
						<split pos="right">
							<output>0.88866515049769768</output>
						</split>
					</split>
				</split>
				<split pos="right">
					<output>1.3380433311799955</output>
				</split>
			</split>
		</tree>
		<tree id="38" weight="0.06830134553650706">
			<split>
				<feature>32</feature>
				<threshold>1</threshold>
				<split pos="left">
					<feature>8</feature>
					<threshold>4</threshold>
					<split pos="left">
						<feature>64</feature>
						<threshold>0</threshold>
						<split pos="left">
							<feature>20</feature>
							<threshold>155</threshold>
							<split pos="left">
								<feature>47</feature>
								<threshold>-6.22222185</threshold>
								<split pos="left">
									<output>0.66126413273794948</output>
								</split>
								<split pos="right">
									<feature>25</feature>
									<threshold>0</threshold>
									<split pos="left">
										<feature>42</feature>
										<threshold>-12125</threshold>
										<split pos="left">
											<output>0.73949006164986231</output>
										</split>
										<split pos="right">
											<output>-0.35515737579188472</output>
										</split>
									</split>
									<split pos="right">
										<output>0.44520048658898492</output>
									</split>
								</split>
							</split>
							<split pos="right">
								<output>0.6088702500080132</output>
							</split>
						</split>
						<split pos="right">
							<output>0.47367767525709908</output>
						</split>
					</split>
					<split pos="right">
						<feature>42</feature>
						<threshold>-18940</threshold>
						<split pos="left">
							<feature>22</feature>
							<threshold>22295</threshold>
							<split pos="left">
								<output>-4.1236252332677426</output>
							</split>
							<split pos="right">
								<output>-1.6767919508516975</output>
							</split>
						</split>
						<split pos="right">
							<output>0.59173167203429655</output>
						</split>
					</split>
				</split>
				<split pos="right">
					<output>1.2864590398323181</output>
				</split>
			</split>
		</tree>
		<tree id="39" weight="0.090909090909090912">
			<split>
				<feature>32</feature>
				<threshold>1</threshold>
				<split pos="left">
					<feature>62</feature>
					<threshold>6</threshold>
					<split pos="left">
						<feature>20</feature>
						<threshold>155</threshold>
						<split pos="left">
							<feature>47</feature>
							<threshold>-6.22222185</threshold>
							<split pos="left">
								<output>0.65297075470097665</output>
							</split>
							<split pos="right">
								<feature>22</feature>
								<threshold>70441</threshold>
								<split pos="left">
									<feature>21</feature>
									<threshold>17</threshold>
									<split pos="left">
										<feature>27</feature>
										<threshold>9.5</threshold>
										<split pos="left">
											<output>-0.50244644208394196</output>
										</split>
										<split pos="right">
											<output>0.54022356953834716</output>
										</split>
									</split>
									<split pos="right">
										<output>-4.2199169237556919</output>
									</split>
								</split>
								<split pos="right">
									<output>0.1743513973770511</output>
								</split>
							</split>
						</split>
						<split pos="right">
							<output>0.59302673946669171</output>
						</split>
					</split>
					<split pos="right">
						<feature>31</feature>
						<threshold>1</threshold>
						<split pos="left">
							<output>-0.38628853718095874</output>
						</split>
						<split pos="right">
							<feature>20</feature>
							<threshold>3</threshold>
							<split pos="left">
								<output>1.2771685950874119</output>
							</split>
							<split pos="right">
								<output>0.56081739721527157</output>
							</split>
						</split>
					</split>
				</split>
				<split pos="right">
					<output>1.2546400724016227</output>
				</split>
			</split>
		</tree>
		<tree id="40" weight="0.090909090909090912">
			<split>
				<feature>32</feature>
				<threshold>1</threshold>
				<split pos="left">
					<feature>62</feature>
					<threshold>6</threshold>
					<split pos="left">
						<feature>18</feature>
						<threshold>269</threshold>
						<split pos="left">
							<feature>47</feature>
							<threshold>-6.22222185</threshold>
							<split pos="left">
								<output>0.6195605127103192</output>
							</split>
							<split pos="right">
								<feature>8</feature>
								<threshold>2</threshold>
								<split pos="left">
									<feature>14</feature>
									<threshold>0</threshold>
									<split pos="left">
										<output>-0.1277511044880317</output>
									</split>
									<split pos="right">
										<output>-0.60618327122734483</output>
									</split>
								</split>
								<split pos="right">
									<output>0.41594928097954748</output>
								</split>
							</split>
						</split>
						<split pos="right">
							<output>0.56822301381327822</output>
						</split>
					</split>
					<split pos="right">
						<feature>31</feature>
						<threshold>1</threshold>
						<split pos="left">
							<output>-0.36336886189720108</output>
						</split>
						<split pos="right">
							<feature>20</feature>
							<threshold>4</threshold>
							<split pos="left">
								<output>1.2377680996164087</output>
							</split>
							<split pos="right">
								<output>0.48565913857131654</output>
							</split>
						</split>
					</split>
				</split>
				<split pos="right">
					<feature>42</feature>
					<threshold>2756</threshold>
					<split pos="left">
						<output>-1.7268776335519824</output>
					</split>
					<split pos="right">
						<output>1.4565797357767472</output>
					</split>
				</split>
			</split>
		</tree>
		<tree id="41" weight="0">
			<split>
				<feature>42</feature>
				<threshold>17435392</threshold>
				<split pos="left">
					<feature>32</feature>
					<threshold>1</threshold>
					<split pos="left">
						<feature>27</feature>
						<threshold>2.98214293</threshold>
						<split pos="left">
							<output>-0.26353044300521611</output>
						</split>
						<split pos="right">
							<feature>61</feature>
							<threshold>6</threshold>
							<split pos="left">
								<feature>64</feature>
								<threshold>3</threshold>
								<split pos="left">
									<feature>1</feature>
									<threshold>5</threshold>
									<split pos="left">
										<output>0.073518006518571197</output>
									</split>
									<split pos="right">
										<output>-2.3877860930154053</output>
									</split>
								</split>
								<split pos="right">
									<output>0.53573134642725684</output>
								</split>
							</split>
							<split pos="right">
								<feature>31</feature>
								<threshold>1</threshold>
								<split pos="left">
									<output>0.37475122639852987</output>
								</split>
								<split pos="right">
									<output>0.90080288482133797</output>
								</split>
							</split>
						</split>
					</split>
					<split pos="right">
						<output>1.2098883937134173</output>
					</split>
				</split>
				<split pos="right">
					<feature>61</feature>
					<threshold>0</threshold>
					<split pos="left">
						<feature>1</feature>
						<threshold>3</threshold>
						<split pos="left">
							<output>-1.0585180743168439</output>
						</split>
						<split pos="right">
							<output>-3.8341194166460286</output>
						</split>
					</split>
					<split pos="right">
						<output>0.37921488799154091</output>
					</split>
				</split>
			</split>
		</tree>
		<tree id="42" weight="0.082644628099173556">
			<split>
				<feature>32</feature>
				<threshold>1</threshold>
				<split pos="left">
					<feature>53</feature>
					<threshold>-4</threshold>
					<split pos="left">
						<feature>42</feature>
						<threshold>-358702</threshold>
						<split pos="left">
							<feature>13</feature>
							<threshold>5</threshold>
							<split pos="left">
								<output>1.4688885124590447</output>
							</split>
							<split pos="right">
								<output>-1.0881806086403745</output>
							</split>
						</split>
						<split pos="right">
							<output>-0.636481295427197</output>
						</split>
					</split>
					<split pos="right">
						<feature>52</feature>
						<threshold>0</threshold>
						<split pos="left">
							<feature>27</feature>
							<threshold>1.57142901</threshold>
							<split pos="left">
								<output>-0.52598339059891386</output>
							</split>
							<split pos="right">
								<feature>61</feature>
								<threshold>5</threshold>
								<split pos="left">
									<feature>42</feature>
									<threshold>-18940</threshold>
									<split pos="left">
										<output>-1.7410346124801184</output>
									</split>
									<split pos="right">
										<output>0.10739228567842132</output>
									</split>
								</split>
								<split pos="right">
									<feature>62</feature>
									<threshold>6</threshold>
									<split pos="left">
										<output>0.36254715212142419</output>
									</split>
									<split pos="right">
										<output>0.65563325151762941</output>
									</split>
								</split>
							</split>
						</split>
						<split pos="right">
							<output>-1.8307159577180059</output>
						</split>
					</split>
				</split>
				<split pos="right">
					<output>1.221876351630369</output>
				</split>
			</split>
		</tree>
		<tree id="43" weight="0.056447393005377731">
			<split>
				<feature>42</feature>
				<threshold>17435392</threshold>
				<split pos="left">
					<feature>53</feature>
					<threshold>-4</threshold>
					<split pos="left">
						<feature>42</feature>
						<threshold>-358702</threshold>
						<split pos="left">
							<output>1.4181034626445936</output>
						</split>
						<split pos="right">
							<output>-0.57411001362489578</output>
						</split>
					</split>
					<split pos="right">
						<feature>32</feature>
						<threshold>1</threshold>
						<split pos="left">
							<feature>52</feature>
							<threshold>0</threshold>
							<split pos="left">
								<feature>27</feature>
								<threshold>0.833333015</threshold>
								<split pos="left">
									<output>-0.44120027745753693</output>
								</split>
								<split pos="right">
									<feature>61</feature>
									<threshold>5</threshold>
									<split pos="left">
										<output>0.0063989999818090202</output>
									</split>
									<split pos="right">
										<output>0.582101444909356</output>
									</split>
								</split>
							</split>
							<split pos="right">
								<output>-2.0146026902468077</output>
							</split>
						</split>
						<split pos="right">
							<output>1.0013497353022385</output>
						</split>
					</split>
				</split>
				<split pos="right">
					<feature>61</feature>
					<threshold>0</threshold>
					<split pos="left">
						<feature>1</feature>
						<threshold>3</threshold>
						<split pos="left">
							<output>-1.0701369240148706</output>
						</split>
						<split pos="right">
							<output>-3.908643387615049</output>
						</split>
					</split>
					<split pos="right">
						<output>0.38226164666415435</output>
					</split>
				</split>
			</split>
		</tree>
		<tree id="44" weight="0.082644628099173556">
			<split>
				<feature>32</feature>
				<threshold>1</threshold>
				<split pos="left">
					<feature>53</feature>
					<threshold>-4</threshold>
					<split pos="left">
						<feature>42</feature>
						<threshold>-358702</threshold>
						<split pos="left">
							<feature>13</feature>
							<threshold>5</threshold>
							<split pos="left">
								<output>1.4522124442153714</output>
							</split>
							<split pos="right">
								<output>-1.0921947720882617</output>
							</split>
						</split>
						<split pos="right">
							<output>-0.55970323208957429</output>
						</split>
					</split>
					<split pos="right">
						<feature>52</feature>
						<threshold>0</threshold>
						<split pos="left">
							<feature>27</feature>
							<threshold>1.57142901</threshold>
							<split pos="left">
								<output>-0.50073823745608392</output>
							</split>
							<split pos="right">
								<feature>61</feature>
								<threshold>5</threshold>
								<split pos="left">
									<feature>63</feature>
									<threshold>5</threshold>
									<split pos="left">
										<output>0.026416523429316181</output>
									</split>
									<split pos="right">
										<output>-1.2144237883755589</output>
									</split>
								</split>
								<split pos="right">
									<feature>62</feature>
									<threshold>6</threshold>
									<split pos="left">
										<output>0.43674108642464016</output>
									</split>
									<split pos="right">
										<output>0.62377008284699764</output>
									</split>
								</split>
							</split>
						</split>
						<split pos="right">
							<output>-1.960368152838996</output>
						</split>
					</split>
				</split>
				<split pos="right">
					<output>1.0119948890413364</output>
				</split>
			</split>
		</tree>
		<tree id="45" weight="0.082644628099173556">
			<split>
				<feature>53</feature>
				<threshold>-4</threshold>
				<split pos="left">
					<output>1.2682750579332589</output>
				</split>
				<split pos="right">
					<feature>32</feature>
					<threshold>1</threshold>
					<split pos="left">
						<feature>18</feature>
						<threshold>269</threshold>
						<split pos="left">
							<feature>42</feature>
							<threshold>-4645664</threshold>
							<split pos="left">
								<output>-2.0862420225651572</output>
							</split>
							<split pos="right">
								<feature>62</feature>
								<threshold>6</threshold>
								<split pos="left">
									<feature>8</feature>
									<threshold>2</threshold>
									<split pos="left">
										<feature>46</feature>
										<threshold>5</threshold>
										<split pos="left">
											<feature>21</feature>
											<threshold>9</threshold>
											<split pos="left">
												<feature>31</feature>
												<threshold>6</threshold>
												<split pos="left">
													<output>-0.29771342856192867</output>
												</split>
												<split pos="right">
													<output>-1.3668071851837071</output>
												</split>
											</split>
											<split pos="right">
												<output>0.81797336573054347</output>
											</split>
										</split>
										<split pos="right">
											<output>0.64447005567204774</output>
										</split>
									</split>
									<split pos="right">
										<output>0.44018320220511287</output>
									</split>
								</split>
								<split pos="right">
									<output>0.47405535997243409</output>
								</split>
							</split>
						</split>
						<split pos="right">
							<output>0.59767158621522054</output>
						</split>
					</split>
					<split pos="right">
						<output>0.93534553546448096</output>
					</split>
				</split>
			</split>
		</tree>
		<tree id="46" weight="0.075131480090157771">
			<split>
				<feature>42</feature>
				<threshold>17435392</threshold>
				<split pos="left">
					<feature>32</feature>
					<threshold>1</threshold>
					<split pos="left">
						<feature>53</feature>
						<threshold>-4</threshold>
						<split pos="left">
							<output>1.2001626462818862</output>
						</split>
						<split pos="right">
							<feature>61</feature>
							<threshold>6</threshold>
							<split pos="left">
								<feature>34</feature>
								<threshold>114</threshold>
								<split pos="left">
									<feature>42</feature>
									<threshold>134539</threshold>
									<split pos="left">
										<feature>42</feature>
										<threshold>29</threshold>
										<split pos="left">
											<output>0.12493292196410209</output>
										</split>
										<split pos="right">
											<output>-0.70279514896614714</output>
										</split>
									</split>
									<split pos="right">
										<output>0.40108947411326312</output>
									</split>
								</split>
								<split pos="right">
									<output>0.54649015149868874</output>
								</split>
							</split>
							<split pos="right">
								<output>0.40899936868249354</output>
							</split>
						</split>
					</split>
					<split pos="right">
						<output>0.95735711879868823</output>
					</split>
				</split>
				<split pos="right">
					<feature>61</feature>
					<threshold>0</threshold>
					<split pos="left">
						<feature>1</feature>
						<threshold>3</threshold>
						<split pos="left">
							<output>-1.0776687353425094</output>
						</split>
						<split pos="right">
							<output>-4.0593713155554942</output>
						</split>
					</split>
					<split pos="right">
						<output>0.36942273748663856</output>
					</split>
				</split>
			</split>
		</tree>
		<tree id="47" weight="0.090909090909090912">
			<split>
				<feature>32</feature>
				<threshold>1</threshold>
				<split pos="left">
					<feature>53</feature>
					<threshold>-4</threshold>
					<split pos="left">
						<output>1.0742580111197468</output>
					</split>
					<split pos="right">
						<feature>42</feature>
						<threshold>3435660</threshold>
						<split pos="left">
							<feature>20</feature>
							<threshold>119</threshold>
							<split pos="left">
								<feature>62</feature>
								<threshold>6</threshold>
								<split pos="left">
									<feature>64</feature>
									<threshold>6</threshold>
									<split pos="left">
										<feature>47</feature>
										<threshold>-6.22222185</threshold>
										<split pos="left">
											<output>0.65345519599168456</output>
										</split>
										<split pos="right">
											<feature>27</feature>
											<threshold>2.25</threshold>
											<split pos="left">
												<output>-0.59080397172800825</output>
											</split>
											<split pos="right">
												<feature>17</feature>
												<threshold>0</threshold>
												<split pos="left">
													<output>0.45845629219194617</output>
												</split>
												<split pos="right">
													<output>-0.32918964805906864</output>
												</split>
											</split>
										</split>
									</split>
									<split pos="right">
										<output>-2.0228281041868712</output>
									</split>
								</split>
								<split pos="right">
									<output>0.43999647914398987</output>
								</split>
							</split>
							<split pos="right">
								<output>0.57839940076306517</output>
							</split>
						</split>
						<split pos="right">
							<output>0.76882284502270704</output>
						</split>
					</split>
				</split>
				<split pos="right">
					<output>0.86650083898198949</output>
				</split>
			</split>
		</tree>
		<tree id="48" weight="0">
			<split>
				<feature>32</feature>
				<threshold>1</threshold>
				<split pos="left">
					<feature>53</feature>
					<threshold>-4</threshold>
					<split pos="left">
						<output>1.1002235351272873</output>
					</split>
					<split pos="right">
						<feature>33</feature>
						<threshold>115</threshold>
						<split pos="left">
							<feature>42</feature>
							<threshold>25387</threshold>
							<split pos="left">
								<feature>47</feature>
								<threshold>-6.22222185</threshold>
								<split pos="left">
									<output>0.61274451880257086</output>
								</split>
								<split pos="right">
									<feature>14</feature>
									<threshold>0</threshold>
									<split pos="left">
										<feature>42</feature>
										<threshold>1</threshold>
										<split pos="left">
											<output>0.21086696196064833</output>
										</split>
										<split pos="right">
											<output>-0.56564097001256597</output>
										</split>
									</split>
									<split pos="right">
										<feature>61</feature>
										<threshold>3</threshold>
										<split pos="left">
											<output>-1.0928762844935767</output>
										</split>
										<split pos="right">
											<output>0.15564072572668644</output>
										</split>
									</split>
								</split>
							</split>
							<split pos="right">
								<feature>42</feature>
								<threshold>26295</threshold>
								<split pos="left">
									<output>1.140102702309753</output>
								</split>
								<split pos="right">
									<output>0.19648902391172068</output>
								</split>
							</split>
						</split>
						<split pos="right">
							<output>0.54542096376561033</output>
						</split>
					</split>
				</split>
				<split pos="right">
					<output>0.85330253421729807</output>
				</split>
			</split>
		</tree>
		<tree id="49" weight="0.090909090909090912">
			<split>
				<feature>32</feature>
				<threshold>1</threshold>
				<split pos="left">
					<feature>53</feature>
					<threshold>-4</threshold>
					<split pos="left">
						<output>0.95277803275598694</output>
					</split>
					<split pos="right">
						<feature>42</feature>
						<threshold>3435660</threshold>
						<split pos="left">
							<feature>20</feature>
							<threshold>119</threshold>
							<split pos="left">
								<feature>27</feature>
								<threshold>4.91666698</threshold>
								<split pos="left">
									<feature>27</feature>
									<threshold>4.47368383</threshold>
									<split pos="left">
										<feature>21</feature>
										<threshold>5</threshold>
										<split pos="left">
											<output>-0.35335280785691953</output>
										</split>
										<split pos="right">
											<output>0.9582098203248316</output>
										</split>
									</split>
									<split pos="right">
										<output>-1.7067639009932161</output>
									</split>
								</split>
								<split pos="right">
									<feature>42</feature>
									<threshold>947000</threshold>
									<split pos="left">
										<output>0.14901385131357456</output>
									</split>
									<split pos="right">
										<output>1.1255372004260942</output>
									</split>
								</split>
							</split>
							<split pos="right">
								<output>0.52519061421598834</output>
							</split>
						</split>
						<split pos="right">
							<feature>25</feature>
							<threshold>0</threshold>
							<split pos="left">
								<output>0.0080134887605255289</output>
							</split>
							<split pos="right">
								<output>1.3939390624079542</output>
							</split>
						</split>
					</split>
				</split>
				<split pos="right">
					<output>0.90824257245429085</output>
				</split>
			</split>
		</tree>
		<tree id="50" weight="0.090909090909090912">
			<split>
				<feature>32</feature>
				<threshold>1</threshold>
				<split pos="left">
					<feature>42</feature>
					<threshold>3435660</threshold>
					<split pos="left">
						<feature>53</feature>
						<threshold>-4</threshold>
						<split pos="left">
							<output>0.61329736086679243</output>
						</split>
						<split pos="right">
							<feature>18</feature>
							<threshold>527</threshold>
							<split pos="left">
								<feature>18</feature>
								<threshold>260</threshold>
								<split pos="left">
									<feature>27</feature>
									<threshold>4.91666698</threshold>
									<split pos="left">
										<feature>8</feature>
										<threshold>2</threshold>
										<split pos="left">
											<output>-0.43476675439260498</output>
										</split>
										<split pos="right">
											<output>0.34289341974268372</output>
										</split>
									</split>
									<split pos="right">
										<feature>16</feature>
										<threshold>1</threshold>
										<split pos="left">
											<output>-0.065282095728391873</output>
										</split>
										<split pos="right">
											<output>0.7618610277485196</output>
										</split>
									</split>
								</split>
								<split pos="right">
									<output>1.1751429364911354</output>
								</split>
							</split>
							<split pos="right">
								<output>-1.4923664579708589</output>
							</split>
						</split>
					</split>
					<split pos="right">
						<feature>25</feature>
						<threshold>0</threshold>
						<split pos="left">
							<output>0.02617642329425517</output>
						</split>
						<split pos="right">
							<output>1.3493811228962487</output>
						</split>
					</split>
				</split>
				<split pos="right">
					<output>0.82510718743552436</output>
				</split>
			</split>
		</tree>
		<tree id="51" weight="0.090909090909090912">
			<split>
				<feature>32</feature>
				<threshold>1</threshold>
				<split pos="left">
					<feature>53</feature>
					<threshold>-4</threshold>
					<split pos="left">
						<output>0.63562309832757524</output>
					</split>
					<split pos="right">
						<feature>42</feature>
						<threshold>3435660</threshold>
						<split pos="left">
							<feature>61</feature>
							<threshold>5</threshold>
							<split pos="left">
								<feature>20</feature>
								<threshold>119</threshold>
								<split pos="left">
									<feature>47</feature>
									<threshold>-6.22222185</threshold>
									<split pos="left">
										<output>0.55379535280312331</output>
									</split>
									<split pos="right">
										<feature>1</feature>
										<threshold>4</threshold>
										<split pos="left">
											<output>-0.60168705305172687</output>
										</split>
										<split pos="right">
											<output>0.032371995534617455</output>
										</split>
									</split>
								</split>
								<split pos="right">
									<output>0.50116338785543879</output>
								</split>
							</split>
							<split pos="right">
								<feature>27</feature>
								<threshold>2.66666698</threshold>
								<split pos="left">
									<output>-0.34989489186243888</output>
								</split>
								<split pos="right">
									<feature>42</feature>
									<threshold>824784</threshold>
									<split pos="left">
										<output>0.3802367881846781</output>
									</split>
									<split pos="right">
										<output>1.1197440898464659</output>
									</split>
								</split>
							</split>
						</split>
						<split pos="right">
							<output>0.62771539126739162</output>
						</split>
					</split>
				</split>
				<split pos="right">
					<output>0.81541121485014234</output>
				</split>
			</split>
		</tree>
		<tree id="52" weight="0.090909090909090912">
			<split>
				<feature>32</feature>
				<threshold>1</threshold>
				<split pos="left">
					<feature>53</feature>
					<threshold>-4</threshold>
					<split pos="left">
						<output>0.57529650711989655</output>
					</split>
					<split pos="right">
						<feature>25</feature>
						<threshold>0</threshold>
						<split pos="left">
							<feature>20</feature>
							<threshold>119</threshold>
							<split pos="left">
								<feature>45</feature>
								<threshold>0</threshold>
								<split pos="left">
									<feature>27</feature>
									<threshold>2.46666694</threshold>
									<split pos="left">
										<output>-0.41372767328509114</output>
									</split>
									<split pos="right">
										<feature>16</feature>
										<threshold>1</threshold>
										<split pos="left">
											<output>0.017706348737272011</output>
										</split>
										<split pos="right">
											<feature>34</feature>
											<threshold>0</threshold>
											<split pos="left">
												<output>1.0126754342816717</output>
											</split>
											<split pos="right">
												<output>0.58363404989580125</output>
											</split>
										</split>
									</split>
								</split>
								<split pos="right">
									<output>-0.95147355355301799</output>
								</split>
							</split>
							<split pos="right">
								<output>1.1419164607003556</output>
							</split>
						</split>
						<split pos="right">
							<feature>42</feature>
							<threshold>3153660</threshold>
							<split pos="left">
								<output>0.15993238307170818</output>
							</split>
							<split pos="right">
								<output>1.2657543234462454</output>
							</split>
						</split>
					</split>
				</split>
				<split pos="right">
					<output>0.79085840432615362</output>
				</split>
			</split>
		</tree>
		<tree id="53" weight="0.10000000000000001">
			<split>
				<feature>32</feature>
				<threshold>1</threshold>
				<split pos="left">
					<feature>42</feature>
					<threshold>-4645664</threshold>
					<split pos="left">
						<output>-1.7616239017383195</output>
					</split>
					<split pos="right">
						<feature>42</feature>
						<threshold>3435660</threshold>
						<split pos="left">
							<feature>42</feature>
							<threshold>-89446</threshold>
							<split pos="left">
								<output>0.73288213002906777</output>
							</split>
							<split pos="right">
								<feature>62</feature>
								<threshold>6</threshold>
								<split pos="left">
									<feature>18</feature>
									<threshold>260</threshold>
									<split pos="left">
										<feature>46</feature>
										<threshold>5</threshold>
										<split pos="left">
											<feature>47</feature>
											<threshold>0.224999994</threshold>
											<split pos="left">
												<feature>47</feature>
